Date,First Trust Dow 30 Equal Weight_etf_Open_average,First Trust Dow 30 Equal Weight_etf_Open_max,First Trust Dow 30 Equal Weight_etf_Open_min,First Trust Dow 30 Equal Weight_etf_High_average,First Trust Dow 30 Equal Weight_etf_High_max,First Trust Dow 30 Equal Weight_etf_High_min,First Trust Dow 30 Equal Weight_etf_Low_average,First Trust Dow 30 Equal Weight_etf_Low_max,First Trust Dow 30 Equal Weight_etf_Low_min,First Trust Dow 30 Equal Weight_etf_Close_average,First Trust Dow 30 Equal Weight_etf_Close_max,First Trust Dow 30 Equal Weight_etf_Close_min
2018-04-08,-0.3356460708697034,-0.3356460708697034,-0.3356460708697034,-0.42837297745920355,-0.42837297745920355,-0.42837297745920355,-0.3522157758357985,-0.3522157758357985,-0.3522157758357985,-0.4663817605679268,-0.4663817605679268,-0.4663817605679268
2018-04-15,-0.3419938402958868,-0.3419938402958868,-0.3419938402958868,-0.4347870795438384,-0.4347870795438384,-0.4347870795438384,-0.15086635801316256,-0.15086635801316256,-0.15086635801316256,-0.2879716230884491,-0.2879716230884491,-0.2879716230884491
2018-04-22,-0.13537619854013677,-0.13537619854013677,-0.13537619854013677,-0.25196543785646586,-0.25196543785646586,-0.25196543785646586,0.05542193649138318,0.05542193649138318,0.05542193649138318,-0.10678689183597231,-0.10678689183597231,-0.10678689183597231
2018-04-29,-1.1852644791403708,-1.1852644791403708,-1.1852644791403708,-1.2241525852762483,-1.2241525852762483,-1.2241525852762483,-1.0117953508343973,-1.0117953508343973,-1.0117953508343973,-1.19561844967675,-1.19561844967675,-1.19561844967675
2018-05-06,0.8605717138819657,0.8605717138819657,0.8605717138819657,0.8726247176616106,0.8726247176616106,0.8726247176616106,0.890523787807216,0.890523787807216,0.890523787807216,0.9075558316426844,0.9075558316426844,0.9075558316426844
2018-05-13,0.789375908485395,0.789375908485395,0.789375908485395,0.6119004852921859,0.6119004852921859,0.6119004852921859,0.8217988893092769,0.8217988893092769,0.8217988893092769,0.6743623080146531,0.6743623080146531,0.6743623080146531
2018-05-20,0.9128770088814987,0.9128770088814987,0.9128770088814987,0.7764455955153788,0.7764455955153788,0.7764455955153788,0.901885926765563,0.901885926765563,0.901885926765563,0.7853010798899275,0.7853010798899275,0.7853010798899275
2018-05-27,0.5830542079320468,0.5830542079320468,0.5830542079320468,0.6427675778072856,0.6427675778072856,0.6427675778072856,0.5768832485509844,0.5768832485509844,0.5768832485509844,0.6835077208164194,0.6835077208164194,0.6835077208164194
2018-06-03,1.7577082328155924,1.7577082328155924,1.7577082328155924,1.8812343115525694,1.8812343115525694,1.8812343115525694,1.5996058253253713,1.5996058253253713,1.5996058253253713,1.7425847946313837,1.7425847946313837,1.7425847946313837
2018-06-10,1.5582189159770004,1.5582189159770004,1.5582189159770004,1.4193725021804018,1.4193725021804018,1.4193725021804018,1.4304595611764575,1.4304595611764575,1.4304595611764575,1.3351571425806188,1.3351571425806188,1.3351571425806188
2018-06-17,-0.1273709414976483,-0.1273709414976483,-0.1273709414976483,0.19681256742167647,0.19681256742167647,0.19681256742167647,0.014086701274157865,0.014086701274157865,0.014086701274157865,0.20967503997158907,0.20967503997158907,0.20967503997158907
2018-06-24,-0.14783876536559565,-0.14783876536559565,-0.14783876536559565,-0.2300336580239171,-0.2300336580239171,-0.2300336580239171,0.00549888341997572,0.00549888341997572,0.00549888341997572,-0.09631514606666118,-0.09631514606666118,-0.09631514606666118
2018-07-01,-0.44183311235379574,-0.44183311235379574,-0.44183311235379574,-0.1349850554300636,-0.1349850554300636,-0.1349850554300636,-0.4313723547467073,-0.4313723547467073,-0.4313723547467073,-0.1825262051125413,-0.1825262051125413,-0.1825262051125413
2018-07-08,0.999108022089239,0.999108022089239,0.999108022089239,0.9346985644357223,0.9346985644357223,0.9346985644357223,0.9783434364638124,0.9783434364638124,0.9783434364638124,0.8381467604993845,0.8381467604993845,0.8381467604993845
2018-07-15,0.8835284807609639,0.8835284807609639,0.8835284807609639,0.7247478871916411,0.7247478871916411,0.7247478871916411,0.8661223391702537,0.8661223391702537,0.8661223391702537,0.7423478545995503,0.7423478545995503,0.7423478545995503
2018-07-22,1.828143080680547,1.828143080680547,1.828143080680547,1.7234872939060102,1.7234872939060102,1.7234872939060102,1.751106630177487,1.751106630177487,1.751106630177487,1.6783519594593523,1.6783519594593523,1.6783519594593523
2018-07-29,1.578423983572271,1.578423983572271,1.578423983572271,1.6103086778645037,1.6103086778645037,1.6103086778645037,1.5722765949135526,1.5722765949135526,1.5722765949135526,1.6163833321138459,1.6163833321138459,1.6163833321138459
2018-08-05,1.3831872680169752,1.3831872680169752,1.3831872680169752,1.4343036498147381,1.4343036498147381,1.4343036498147381,1.3162335061948192,1.3162335061948192,1.3162335061948192,1.2840003424744293,1.2840003424744293,1.2840003424744293
2018-08-12,1.5924745811499634,1.5924745811499634,1.5924745811499634,1.6298012699010131,1.6298012699010131,1.6298012699010131,1.5978490817291253,1.5978490817291253,1.5978490817291253,1.6423134132050825,1.6423134132050825,1.6423134132050825
2018-08-19,1.712511211229041,1.712511211229041,1.712511211229041,1.7127525400947174,1.7127525400947174,1.7127525400947174,1.6975602885406798,1.6975602885406798,1.6975602885406798,1.7183007870246647,1.7183007870246647,1.7183007870246647
2018-08-26,1.552647749793639,1.552647749793639,1.552647749793639,1.5625565170998323,1.5625565170998323,1.5625565170998323,1.5578340716779977,1.5578340716779977,1.5578340716779977,1.5777736091077592,1.5777736091077592,1.5777736091077592
2018-09-02,1.3511725921778706,1.3511725921778706,1.3511725921778706,1.368804371787672,1.368804371787672,1.368804371787672,1.1849330277181236,1.1849330277181236,1.1849330277181236,1.263627167508474,1.263627167508474,1.263627167508474
2018-09-09,1.2624654389516838,1.2624654389516838,1.2624654389516838,1.2790975642818756,1.2790975642818756,1.2790975642818756,1.1537565539846857,1.1537565539846857,1.1537565539846857,1.187883334862543,1.187883334862543,1.187883334862543
2018-09-16,1.6244552759782922,1.6244552759782922,1.6244552759782922,1.7249383111791312,1.7249383111791312,1.7249383111791312,1.691638785017511,1.691638785017511,1.691638785017511,1.7330785559363802,1.7330785559363802,1.7330785559363802
2018-09-23,1.233190969931154,1.233190969931154,1.233190969931154,1.227526012849849,1.227526012849849,1.227526012849849,1.1889885837229603,1.1889885837229603,1.1889885837229603,1.184423893114786,1.184423893114786,1.184423893114786
2018-09-30,1.3069186144394995,1.3069186144394995,1.3069186144394995,1.2793120179856576,1.2793120179856576,1.2793120179856576,0.9135393020674812,0.9135393020674812,0.9135393020674812,0.9713724076603387,0.9713724076603387,0.9713724076603387
2018-10-07,-0.7884843299655767,-0.7884843299655767,-0.7884843299655767,-0.8110473101483019,-0.8110473101483019,-0.8110473101483019,-1.385444907885784,-1.385444907885784,-1.385444907885784,-1.3932125995792368,-1.3932125995792368,-1.3932125995792368
2018-10-14,-0.5567515504139492,-0.5567515504139492,-0.5567515504139492,-0.5869163331610323,-0.5869163331610323,-0.5869163331610323,-0.37153771407493763,-0.37153771407493763,-0.37153771407493763,-0.4011542170957362,-0.4011542170957362,-0.4011542170957362
2018-10-21,-2.017531490588339,-2.017531490588339,-2.017531490588339,-1.8375568263664723,-1.8375568263664723,-1.8375568263664723,-1.925585885571192,-1.925585885571192,-1.925585885571192,-1.8051195306079904,-1.8051195306079904,-1.8051195306079904
2018-10-28,-0.16162525550007087,-0.16162525550007087,-0.16162525550007087,-0.22011506871536785,-0.22011506871536785,-0.22011506871536785,-0.7209876061570217,-0.7209876061570217,-0.7209876061570217,-0.7691978061423138,-0.7691978061423138,-0.7691978061423138
2018-11-04,0.8073483542511098,0.8073483542511098,0.8073483542511098,0.8029550685469699,0.8029550685469699,0.8029550685469699,0.8007214879969745,0.8007214879969745,0.8007214879969745,0.8277502640310619,0.8277502640310619,0.8277502640310619
2018-11-11,-0.39375810324886384,-0.39375810324886384,-0.39375810324886384,0.060978266633107396,0.060978266633107396,0.060978266633107396,-0.14517163444143225,-0.14517163444143225,-0.14517163444143225,0.047883827747455976,0.047883827747455976,0.047883827747455976
2018-11-18,-1.566791108587334,-1.566791108587334,-1.566791108587334,-1.6335334646372812,-1.6335334646372812,-1.6335334646372812,-1.349027860460591,-1.349027860460591,-1.349027860460591,-1.3496209073966867,-1.3496209073966867,-1.3496209073966867
2018-11-25,0.1529721138132706,0.1529721138132706,0.1529721138132706,0.3612620467646716,0.3612620467646716,0.3612620467646716,0.2938755333352066,0.2938755333352066,0.2938755333352066,0.5717973454536391,0.5717973454536391,0.5717973454536391
2018-12-02,-0.44606268141063177,-0.44606268141063177,-0.44606268141063177,-0.30447081797737274,-0.30447081797737274,-0.30447081797737274,-1.1629608027798697,-1.1629608027798697,-1.1629608027798697,-1.2304570633986487,-1.2304570633986487,-1.2304570633986487
2018-12-09,-1.0614038588088683,-1.0614038588088683,-1.0614038588088683,-1.1985771850129892,-1.1985771850129892,-1.1985771850129892,-1.1854561075062877,-1.1854561075062877,-1.1854561075062877,-1.1804169652373946,-1.1804169652373946,-1.1804169652373946
2018-12-16,-2.4314647115580916,-2.4314647115580916,-2.4314647115580916,-2.407018878531909,-2.407018878531909,-2.407018878531909,-2.577682823386073,-2.577682823386073,-2.577682823386073,-2.550594553598176,-2.550594553598176,-2.550594553598176
2018-12-23,0.7630914705363084,0.7630914705363084,0.7630914705363084,0.692236233225555,0.692236233225555,0.692236233225555,-1.5548150745833864,-1.5548150745833864,-1.5548150745833864,-1.574990424174815,-1.574990424174815,-1.574990424174815
2018-12-30,-1.8439204519204913,-1.8439204519204913,-1.8439204519204913,-1.6390594910621745,-1.6390594910621745,-1.6390594910621745,-1.2377350003005403,-1.2377350003005403,-1.2377350003005403,-0.9589766351557776,-0.9589766351557776,-0.9589766351557776
2019-01-06,-0.8182233537892297,-0.8182233537892297,-0.8182233537892297,-0.9934497518888098,-0.9934497518888098,-0.9934497518888098,-0.41035544142833985,-0.41035544142833985,-0.41035544142833985,-0.4737714327557374,-0.4737714327557374,-0.4737714327557374
2019-01-13,-0.21516363493362184,-0.21516363493362184,-0.21516363493362184,-0.15345633952350038,-0.15345633952350038,-0.15345633952350038,0.14537595915028478,0.14537595915028478,0.14537595915028478,0.2046701910515044,0.2046701910515044,0.2046701910515044
2019-01-20,0.01395867948995606,0.01395867948995606,0.01395867948995606,-0.11366831066968057,-0.11366831066968057,-0.11366831066968057,0.24807416353280312,0.24807416353280312,0.24807416353280312,0.1833223051521799,0.1833223051521799,0.1833223051521799
2019-01-27,0.24876350774353237,0.24876350774353237,0.24876350774353237,0.24628013343359592,0.24628013343359592,0.24628013343359592,0.5148544936229098,0.5148544936229098,0.5148544936229098,0.4380233927879611,0.4380233927879611,0.4380233927879611
2019-02-03,0.2232370188879636,0.2232370188879636,0.2232370188879636,0.16372960903353764,0.16372960903353764,0.16372960903353764,0.5438792956259634,0.5438792956259634,0.5438792956259634,0.5652718887207397,0.5652718887207397,0.5652718887207397
2019-02-10,1.0563832224207426,1.0563832224207426,1.0563832224207426,1.2211704884822707,1.2211704884822707,1.2211704884822707,1.3293078765670137,1.3293078765670137,1.3293078765670137,1.4387023012136357,1.4387023012136357,1.4387023012136357
2019-02-17,1.2997469534729968,1.2997469534729968,1.2997469534729968,1.2361774416507085,1.2361774416507085,1.2361774416507085,1.4385274597620705,1.4385274597620705,1.4385274597620705,1.391419732134831,1.391419732134831,1.391419732134831
2019-02-24,1.31379057400795,1.31379057400795,1.31379057400795,1.2911729779287233,1.2911729779287233,1.2911729779287233,1.4581265501532323,1.4581265501532323,1.4581265501532323,1.3938373774654973,1.3938373774654973,1.3938373774654973
2019-03-03,0.5341204912945517,0.5341204912945517,0.5341204912945517,0.6068144709910173,0.6068144709910173,0.6068144709910173,0.7483922505049885,0.7483922505049885,0.7483922505049885,0.7859509555525678,0.7859509555525678,0.7859509555525678
2019-03-10,1.1915123819075557,1.1915123819075557,1.1915123819075557,1.1762761495774627,1.1762761495774627,1.1762761495774627,1.2435131178045422,1.2435131178045422,1.2435131178045422,1.1849181803103022,1.1849181803103022,1.1849181803103022
2019-03-17,0.8855295604978781,0.8855295604978781,0.8855295604978781,0.8610208842083618,0.8610208842083618,0.8610208842083618,0.7985717129210549,0.7985717129210549,0.7985717129210549,0.7365769981641964,0.7365769981641964,0.7365769981641964
2019-03-24,0.8653836283649097,0.8653836283649097,0.8653836283649097,0.9267244244130063,0.9267244244130063,0.9267244244130063,0.9429182995396472,0.9429182995396472,0.9429182995396472,0.9947600959276338,0.9947600959276338,0.9947600959276338
2019-03-31,1.5306378112480037,1.5306378112480037,1.5306378112480037,1.4880034011355587,1.4880034011355587,1.4880034011355587,1.4547513003158894,1.4547513003158894,1.4547513003158894,1.4149828658210866,1.4149828658210866,1.4149828658210866
2019-04-07,1.4056813229174523,1.4056813229174523,1.4056813229174523,1.4286496343248816,1.4286496343248816,1.4286496343248816,1.496406575305433,1.496406575305433,1.496406575305433,1.4594745427998357,1.4594745427998357,1.4594745427998357
2019-04-14,1.52667157998174,1.52667157998174,1.52667157998174,1.5171428177089725,1.5171428177089725,1.5171428177089725,1.4316863399019837,1.4316863399019837,1.4316863399019837,1.4660398406754915,1.4660398406754915,1.4660398406754915
2019-04-21,1.0509277448520467,1.0509277448520467,1.0509277448520467,1.092483785321414,1.092483785321414,1.092483785321414,1.163829810617216,1.163829810617216,1.163829810617216,1.1718615891851403,1.1718615891851403,1.1718615891851403
2019-04-28,0.8541451783532377,0.8541451783532377,0.8541451783532377,0.9979319458621918,0.9979319458621918,0.9979319458621918,0.9436109663020922,0.9436109663020922,0.9436109663020922,1.0877076639821817,1.0877076639821817,1.0877076639821817
2019-05-05,-0.49090274955067015,-0.49090274955067015,-0.49090274955067015,-0.0695597113466247,-0.0695597113466247,-0.0695597113466247,-0.3806453284387334,-0.3806453284387334,-0.3806453284387334,-0.1257094346461558,-0.1257094346461558,-0.1257094346461558
2019-05-12,-0.3965078347785091,-0.3965078347785091,-0.3965078347785091,-0.10376875525517536,-0.10376875525517536,-0.10376875525517536,-0.274715212081289,-0.274715212081289,-0.274715212081289,-0.3368221604627878,-0.3368221604627878,-0.3368221604627878
2019-05-19,-0.5177029333011562,-0.5177029333011562,-0.5177029333011562,-0.7142750348202435,-0.7142750348202435,-0.7142750348202435,-0.7714814130368303,-0.7714814130368303,-0.7714814130368303,-0.7852797698477826,-0.7852797698477826,-0.7852797698477826
2019-05-26,-1.9999999999999987,-1.9999999999999987,-1.9999999999999987,-2.1657368727765767,-2.1657368727765767,-2.1657368727765767,-1.9855094748551854,-1.9855094748551854,-1.9855094748551854,-2.0936368051925958,-2.0936368051925958,-2.0936368051925958
2019-06-02,0.45382243740144057,0.45382243740144057,0.45382243740144057,0.43439790996194294,0.43439790996194294,0.43439790996194294,0.5494543176271303,0.5494543176271303,0.5494543176271303,0.44452446135112966,0.44452446135112966,0.44452446135112966
2019-06-09,0.4972467588597408,0.4972467588597408,0.4972467588597408,0.517585894118105,0.517585894118105,0.517585894118105,0.6062908514033303,0.6062908514033303,0.6062908514033303,0.6350050095650431,0.6350050095650431,0.6350050095650431
2019-06-16,1.5563029985295807,1.5563029985295807,1.5563029985295807,1.4951191907423749,1.4951191907423749,1.4951191907423749,1.5396032769471661,1.5396032769471661,1.5396032769471661,1.4505502420496732,1.4505502420496732,1.4505502420496732
2019-06-23,1.076349020873704,1.076349020873704,1.076349020873704,1.131926481832301,1.131926481832301,1.131926481832301,0.988077138679012,0.988077138679012,0.988077138679012,1.044284101215892,1.044284101215892,1.044284101215892
2019-06-30,1.5094533113122963,1.5094533113122963,1.5094533113122963,1.4715731557014409,1.4715731557014409,1.4715731557014409,1.3508662775634288,1.3508662775634288,1.3508662775634288,1.4461354477674726,1.4461354477674726,1.4461354477674726
2019-07-07,1.5413687461661991,1.5413687461661991,1.5413687461661991,1.6060361544053765,1.6060361544053765,1.6060361544053765,1.5978335394163574,1.5978335394163574,1.5978335394163574,1.6540185710609643,1.6540185710609643,1.6540185710609643
2019-07-14,1.4655516240819428,1.4655516240819428,1.4655516240819428,1.4645222034383687,1.4645222034383687,1.4645222034383687,1.3357443088105319,1.3357443088105319,1.3357443088105319,1.2239922697801022,1.2239922697801022,1.2239922697801022
2019-07-21,1.1359977530418655,1.1359977530418655,1.1359977530418655,1.1310728130064513,1.1310728130064513,1.1310728130064513,1.2371327891682693,1.2371327891682693,1.2371327891682693,1.2099080292588833,1.2099080292588833,1.2099080292588833
2019-07-28,0.19013491538397817,0.19013491538397817,0.19013491538397817,0.10084970212921479,0.10084970212921479,0.10084970212921479,-0.10199669253900283,-0.10199669253900283,-0.10199669253900283,0.06019633449343338,0.06019633449343338,0.06019633449343338
2019-08-04,-0.13668407466388524,-0.13668407466388524,-0.13668407466388524,-0.2017120173215873,-0.2017120173215873,-0.2017120173215873,-0.3982540449193206,-0.3982540449193206,-0.3982540449193206,-0.22716000709522108,-0.22716000709522108,-0.22716000709522108
2019-08-11,-1.0075566319222782,-1.0075566319222782,-1.0075566319222782,-0.9099439886276122,-0.9099439886276122,-0.9099439886276122,-0.902637110940194,-0.902637110940194,-0.902637110940194,-0.8311699488517027,-0.8311699488517027,-0.8311699488517027
2019-08-18,-0.7403450306389376,-0.7403450306389376,-0.7403450306389376,-0.7854568968848463,-0.7854568968848463,-0.7854568968848463,-1.3815477762732047,-1.3815477762732047,-1.3815477762732047,-1.4517922573585988,-1.4517922573585988,-1.4517922573585988
2019-08-25,-0.6936599551571145,-0.6936599551571145,-0.6936599551571145,-0.6879274617817472,-0.6879274617817472,-0.6879274617817472,-0.401265747249641,-0.401265747249641,-0.401265747249641,-0.4368815311304235,-0.4368815311304235,-0.4368815311304235
2019-09-01,0.2675047710191207,0.2675047710191207,0.2675047710191207,0.2607040788124207,0.2607040788124207,0.2607040788124207,0.4372406662046743,0.4372406662046743,0.4372406662046743,0.3081462076900227,0.3081462076900227,0.3081462076900227
2019-09-08,1.0000866611665027,1.0000866611665027,1.0000866611665027,0.9668305490060363,0.9668305490060363,0.9668305490060363,1.0636117510209344,1.0636117510209344,1.0636117510209344,0.979063232021048,0.979063232021048,0.979063232021048
2019-09-15,0.8887420389116846,0.8887420389116846,0.8887420389116846,0.8034859158787291,0.8034859158787291,0.8034859158787291,0.6802361184666234,0.6802361184666234,0.6802361184666234,0.5747796767547732,0.5747796767547732,0.5747796767547732
2019-09-22,-0.056652417522928954,-0.056652417522928954,-0.056652417522928954,0.007801636508728659,0.007801636508728659,0.007801636508728659,-0.05849151063972761,-0.05849151063972761,-0.05849151063972761,-0.13594545421826734,-0.13594545421826734,-0.13594545421826734
2019-09-29,-0.9960654985670927,-0.9960654985670927,-0.9960654985670927,-0.6950343676606217,-0.6950343676606217,-0.6950343676606217,-0.7101868695258235,-0.7101868695258235,-0.7101868695258235,-0.4176069975414742,-0.4176069975414742,-0.4176069975414742
2019-10-06,-0.057612857551842575,-0.057612857551842575,-0.057612857551842575,0.15713999768330772,0.15713999768330772,0.15713999768330772,0.1939049669179562,0.1939049669179562,0.1939049669179562,0.09876440689769836,0.09876440689769836,0.09876440689769836
2019-10-13,0.3514044190925017,0.3514044190925017,0.3514044190925017,0.23622336092506804,0.23622336092506804,0.23622336092506804,0.39096308764954907,0.39096308764954907,0.39096308764954907,0.29815961684289277,0.29815961684289277,0.29815961684289277
2019-10-20,0.26406022990589506,0.26406022990589506,0.26406022990589506,0.7511471623649568,0.7511471623649568,0.7511471623649568,0.4918036951793301,0.4918036951793301,0.4918036951793301,0.8040091078879212,0.8040091078879212,0.8040091078879212
2019-10-27,1.270139792552834,1.270139792552834,1.270139792552834,1.26125853148897,1.26125853148897,1.26125853148897,1.2433245501726948,1.2433245501726948,1.2433245501726948,1.2991177236286542,1.2991177236286542,1.2991177236286542
2019-11-03,1.6062803925556945,1.6062803925556945,1.6062803925556945,1.6542678297215188,1.6542678297215188,1.6542678297215188,1.5633596670308023,1.5633596670308023,1.5633596670308023,1.622262552568985,1.622262552568985,1.622262552568985
2019-11-10,1.707023281417021,1.707023281417021,1.707023281417021,1.704583249942153,1.704583249942153,1.704583249942153,1.5912083413398566,1.5912083413398566,1.5912083413398566,1.5882047326175106,1.5882047326175106,1.5882047326175106
2019-11-17,1.4954733375077391,1.4954733375077391,1.4954733375077391,1.4650330860671845,1.4650330860671845,1.4650330860671845,1.5026458390167083,1.5026458390167083,1.5026458390167083,1.4760345760091724,1.4760345760091724,1.4760345760091724
2019-11-24,1.693545935340154,1.693545935340154,1.693545935340154,1.6977800463177544,1.6977800463177544,1.6977800463177544,1.5741990348474686,1.5741990348474686,1.5741990348474686,1.5914015897982154,1.5914015897982154,1.5914015897982154
2019-12-01,1.3014608658685864,1.3014608658685864,1.3014608658685864,1.3582321492278902,1.3582321492278902,1.3582321492278902,1.3563295788848009,1.3563295788848009,1.3563295788848009,1.3271911383927395,1.3271911383927395,1.3271911383927395
2019-12-08,1.29712260991177,1.29712260991177,1.29712260991177,1.290519206883248,1.290519206883248,1.290519206883248,1.1808285977978685,1.1808285977978685,1.1808285977978685,1.2245740477282785,1.2245740477282785,1.2245740477282785
2019-12-15,1.4844941013921509,1.4844941013921509,1.4844941013921509,1.5679054456862336,1.5679054456862336,1.5679054456862336,1.5229095627342146,1.5229095627342146,1.5229095627342146,1.5405952729774735,1.5405952729774735,1.5405952729774735
2019-12-22,1.480840283480646,1.480840283480646,1.480840283480646,1.5055122569167985,1.5055122569167985,1.5055122569167985,1.4421460556566184,1.4421460556566184,1.4421460556566184,1.4504938862178303,1.4504938862178303,1.4504938862178303
2019-12-29,1.1104806435280985,1.1104806435280985,1.1104806435280985,1.2138682810896373,1.2138682810896373,1.2138682810896373,1.1921096736177808,1.1921096736177808,1.1921096736177808,1.234830957600167,1.234830957600167,1.234830957600167
