Date,Guggenheim Invest S&P 500 Equal Weight Materials_Open_average,Guggenheim Invest S&P 500 Equal Weight Materials_Open_max,Guggenheim Invest S&P 500 Equal Weight Materials_Open_min,Guggenheim Invest S&P 500 Equal Weight Materials_High_average,Guggenheim Invest S&P 500 Equal Weight Materials_High_max,Guggenheim Invest S&P 500 Equal Weight Materials_High_min,Guggenheim Invest S&P 500 Equal Weight Materials_Low_average,Guggenheim Invest S&P 500 Equal Weight Materials_Low_max,Guggenheim Invest S&P 500 Equal Weight Materials_Low_min,Guggenheim Invest S&P 500 Equal Weight Materials_Close_average,Guggenheim Invest S&P 500 Equal Weight Materials_Close_max,Guggenheim Invest S&P 500 Equal Weight Materials_Close_min
2018-04-08,-0.5188457815770291,-0.5188457815770291,-0.5188457815770291,-0.7310426648653335,-0.7310426648653335,-0.7310426648653335,-0.4551179779596853,-0.4551179779596853,-0.4551179779596853,-0.7004017979241315,-0.7004017979241315,-0.7004017979241315
2018-04-15,0.13220686686128383,0.13220686686128383,0.13220686686128383,-0.061190450410219,-0.061190450410219,-0.061190450410219,0.09424568807999899,0.09424568807999899,0.09424568807999899,-0.03601044193711391,-0.03601044193711391,-0.03601044193711391
2018-04-22,-0.2449577286397112,-0.2449577286397112,-0.2449577286397112,-0.5053130610686357,-0.5053130610686357,-0.5053130610686357,-0.3230699050830341,-0.3230699050830341,-0.3230699050830341,-0.444193602791869,-0.444193602791869,-0.444193602791869
2018-04-29,-0.9198085336150458,-0.9198085336150458,-0.9198085336150458,-0.3959778261996077,-0.3959778261996077,-0.3959778261996077,-0.4861834580248861,-0.4861834580248861,-0.4861834580248861,-0.2537373294707345,-0.2537373294707345,-0.2537373294707345
2018-05-06,-0.044741285653334587,-0.044741285653334587,-0.044741285653334587,0.2051837581576423,0.2051837581576423,0.2051837581576423,0.21681523668740182,0.21681523668740182,0.21681523668740182,0.17566944060508038,0.17566944060508038,0.17566944060508038
2018-05-13,1.1533678004624428,1.1533678004624428,1.1533678004624428,0.9601159517501406,0.9601159517501406,0.9601159517501406,1.2485423450178506,1.2485423450178506,1.2485423450178506,1.0060039282134832,1.0060039282134832,1.0060039282134832
2018-05-20,0.7958107846955768,0.7958107846955768,0.7958107846955768,0.5937052747357001,0.5937052747357001,0.5937052747357001,0.8261356288442454,0.8261356288442454,0.8261356288442454,0.7170675337441885,0.7170675337441885,0.7170675337441885
2018-05-27,0.3662566410922585,0.3662566410922585,0.3662566410922585,0.43168002555437357,0.43168002555437357,0.43168002555437357,0.5516155328224776,0.5516155328224776,0.5516155328224776,0.40946772681886906,0.40946772681886906,0.40946772681886906
2018-06-03,1.493568356125983,1.493568356125983,1.493568356125983,1.7542133473886155,1.7542133473886155,1.7542133473886155,1.501353239027819,1.501353239027819,1.501353239027819,1.6088428413082692,1.6088428413082692,1.6088428413082692
2018-06-10,1.0294865668192557,1.0294865668192557,1.0294865668192557,0.9495774095792419,0.9495774095792419,0.9495774095792419,0.9720257316577628,0.9720257316577628,0.9720257316577628,1.0088382638851034,1.0088382638851034,1.0088382638851034
2018-06-17,-0.2091313178226222,-0.2091313178226222,-0.2091313178226222,-0.21519269061873597,-0.21519269061873597,-0.21519269061873597,0.03085831357687001,0.03085831357687001,0.03085831357687001,0.04604613225283068,0.04604613225283068,0.04604613225283068
2018-06-24,-0.4511966048517288,-0.4511966048517288,-0.4511966048517288,-0.4171868028125044,-0.4171868028125044,-0.4171868028125044,-0.26153741398267805,-0.26153741398267805,-0.26153741398267805,-0.5468653278477413,-0.5468653278477413,-0.5468653278477413
2018-07-01,-0.5861909202292497,-0.5861909202292497,-0.5861909202292497,-0.7024322372398802,-0.7024322372398802,-0.7024322372398802,-0.3541316488043044,-0.3541316488043044,-0.3541316488043044,-0.45576729057766746,-0.45576729057766746,-0.45576729057766746
2018-07-08,-0.1349564333709507,-0.1349564333709507,-0.1349564333709507,-0.610358686403687,-0.610358686403687,-0.610358686403687,-0.13089724026681915,-0.13089724026681915,-0.13089724026681915,-0.5307180757346863,-0.5307180757346863,-0.5307180757346863
2018-07-15,-0.3043296243829805,-0.3043296243829805,-0.3043296243829805,-0.729966367053999,-0.729966367053999,-0.729966367053999,-0.21157295575233837,-0.21157295575233837,-0.21157295575233837,-0.5681204728815331,-0.5681204728815331,-0.5681204728815331
2018-07-22,0.661676661881294,0.661676661881294,0.661676661881294,0.37895721354318557,0.37895721354318557,0.37895721354318557,0.2806308542074031,0.2806308542074031,0.2806308542074031,0.012011343738265607,0.012011343738265607,0.012011343738265607
2018-07-29,0.09102969359614493,0.09102969359614493,0.09102969359614493,0.45553967047010646,0.45553967047010646,0.45553967047010646,0.25393637697393934,0.25393637697393934,0.25393637697393934,0.6157735154101872,0.6157735154101872,0.6157735154101872
2018-08-05,0.007079820848459473,0.007079820848459473,0.007079820848459473,-0.3132871270646103,-0.3132871270646103,-0.3132871270646103,-0.3645381010439104,-0.3645381010439104,-0.3645381010439104,-0.5936232019449451,-0.5936232019449451,-0.5936232019449451
2018-08-12,-1.8986511402214914,-1.8986511402214914,-1.8986511402214914,-1.6212092658668766,-1.6212092658668766,-1.6212092658668766,-1.8413568894404804,-1.8413568894404804,-1.8413568894404804,-1.3197442724440303,-1.3197442724440303,-1.3197442724440303
2018-08-19,-1.1631193483770705,-1.1631193483770705,-1.1631193483770705,-0.7081986173691808,-0.7081986173691808,-0.7081986173691808,-1.0889248429946798,-1.0889248429946798,-1.0889248429946798,-0.552874190394117,-0.552874190394117,-0.552874190394117
2018-08-26,-0.10505258134872326,-0.10505258134872326,-0.10505258134872326,-0.01754937738828268,-0.01754937738828268,-0.01754937738828268,-0.12496926401516187,-0.12496926401516187,-0.12496926401516187,-0.28858271448271344,-0.28858271448271344,-0.28858271448271344
2018-09-02,-0.6173274224695785,-0.6173274224695785,-0.6173274224695785,-0.9495910922671973,-0.9495910922671973,-0.9495910922671973,-0.5619590100625205,-0.5619590100625205,-0.5619590100625205,-0.8907390324381448,-0.8907390324381448,-0.8907390324381448
2018-09-09,1.1330641861126378,1.1330641861126378,1.1330641861126378,1.310524725491741,1.310524725491741,1.310524725491741,1.5255385041872387,1.5255385041872387,1.5255385041872387,1.6529104391427727,1.6529104391427727,1.6529104391427727
2018-09-16,2.703853926317139,2.703853926317139,2.703853926317139,2.7916235072567317,2.7916235072567317,2.7916235072567317,2.7410205914100922,2.7410205914100922,2.7410205914100922,2.7319992186649804,2.7319992186649804,2.7319992186649804
2018-09-23,-0.26879441299831697,-0.26879441299831697,-0.26879441299831697,-0.3587123645973131,-0.3587123645973131,-0.3587123645973131,-0.25827966292136845,-0.25827966292136845,-0.25827966292136845,-0.5056191366850338,-0.5056191366850338,-0.5056191366850338
2018-09-30,-0.1844025900638932,-0.1844025900638932,-0.1844025900638932,-0.4672876159430458,-0.4672876159430458,-0.4672876159430458,-0.7095821841194577,-0.7095821841194577,-0.7095821841194577,-0.5823893078834133,-0.5823893078834133,-0.5823893078834133
2018-10-07,-2.5698098421064994,-2.5698098421064994,-2.5698098421064994,-2.7439721133545594,-2.7439721133545594,-2.7439721133545594,-2.828418839538092,-2.828418839538092,-2.828418839538092,-2.9023134837497793,-2.9023134837497793,-2.9023134837497793
2018-10-14,-2.1905262660908957,-2.1905262660908957,-2.1905262660908957,-2.243033971499667,-2.243033971499667,-2.243033971499667,-2.1125009092126605,-2.1125009092126605,-2.1125009092126605,-2.2005561397560056,-2.2005561397560056,-2.2005561397560056
2018-10-21,-2.381501949133685,-2.381501949133685,-2.381501949133685,-2.270447634436819,-2.270447634436819,-2.270447634436819,-2.3516267830681903,-2.3516267830681903,-2.3516267830681903,-2.20245297013128,-2.20245297013128,-2.20245297013128
2018-10-28,-0.6819912323785391,-0.6819912323785391,-0.6819912323785391,-0.7599611977262721,-0.7599611977262721,-0.7599611977262721,-0.8111180446150976,-0.8111180446150976,-0.8111180446150976,-0.8374774474322362,-0.8374774474322362,-0.8374774474322362
2018-11-04,-0.35708338098659126,-0.35708338098659126,-0.35708338098659126,-0.4578464682756007,-0.4578464682756007,-0.4578464682756007,-0.25062097909862613,-0.25062097909862613,-0.25062097909862613,-0.3600131731044991,-0.3600131731044991,-0.3600131731044991
2018-11-11,-0.3807068801480131,-0.3807068801480131,-0.3807068801480131,-0.1633679369504302,-0.1633679369504302,-0.1633679369504302,-0.23837406549349008,-0.23837406549349008,-0.23837406549349008,-0.11097451269814469,-0.11097451269814469,-0.11097451269814469
2018-11-18,-0.7130736752834288,-0.7130736752834288,-0.7130736752834288,-0.7868939325354815,-0.7868939325354815,-0.7868939325354815,-0.5762807758891236,-0.5762807758891236,-0.5762807758891236,-0.6857192583976319,-0.6857192583976319,-0.6857192583976319
2018-11-25,-0.33733538789256956,-0.33733538789256956,-0.33733538789256956,-0.26429594290122044,-0.26429594290122044,-0.26429594290122044,-0.20312452458707922,-0.20312452458707922,-0.20312452458707922,-0.20723685149918655,-0.20723685149918655,-0.20723685149918655
2018-12-02,-0.4561047750039285,-0.4561047750039285,-0.4561047750039285,-0.5566399036237093,-0.5566399036237093,-0.5566399036237093,-0.8922561559481459,-0.8922561559481459,-0.8922561559481459,-0.9781071317675676,-0.9781071317675676,-0.9781071317675676
2018-12-09,-1.2884329083988846,-1.2884329083988846,-1.2884329083988846,-1.2827532682274616,-1.2827532682274616,-1.2827532682274616,-1.124096636664076,-1.124096636664076,-1.124096636664076,-1.1834528376707742,-1.1834528376707742,-1.1834528376707742
2018-12-16,-1.8921736605718855,-1.8921736605718855,-1.8921736605718855,-1.8432398430353054,-1.8432398430353054,-1.8432398430353054,-1.8767556290954936,-1.8767556290954936,-1.8767556290954936,-1.9944813768906717,-1.9944813768906717,-1.9944813768906717
2018-12-23,-1.369380770847921,-1.369380770847921,-1.369380770847921,-1.491775236319956,-1.491775236319956,-1.491775236319956,-1.3465074121109628,-1.3465074121109628,-1.3465074121109628,-1.4004051623448197,-1.4004051623448197,-1.4004051623448197
2018-12-30,-1.1548948217731425,-1.1548948217731425,-1.1548948217731425,-1.0066377386245937,-1.0066377386245937,-1.0066377386245937,-0.8972047752406247,-0.8972047752406247,-0.8972047752406247,-0.6854930785629889,-0.6854930785629889,-0.6854930785629889
2019-01-06,-0.3134478684731622,-0.3134478684731622,-0.3134478684731622,-0.32088085839702324,-0.32088085839702324,-0.32088085839702324,-0.11646964561444666,-0.11646964561444666,-0.11646964561444666,-0.0890786201926814,-0.0890786201926814,-0.0890786201926814
2019-01-13,0.17254651764975965,0.17254651764975965,0.17254651764975965,0.2966759975998014,0.2966759975998014,0.2966759975998014,0.23812556445609023,0.23812556445609023,0.23812556445609023,0.31770567309836806,0.31770567309836806,0.31770567309836806
2019-01-20,0.08450151753358175,0.08450151753358175,0.08450151753358175,-0.019722682197125724,-0.019722682197125724,-0.019722682197125724,0.245822740299194,0.245822740299194,0.245822740299194,0.13237917164330543,0.13237917164330543,0.13237917164330543
2019-01-27,0.6063142900690764,0.6063142900690764,0.6063142900690764,0.5599228842500589,0.5599228842500589,0.5599228842500589,0.7023364433587063,0.7023364433587063,0.7023364433587063,0.684218216718805,0.684218216718805,0.684218216718805
2019-02-03,0.47943768685487714,0.47943768685487714,0.47943768685487714,0.36092277463872685,0.36092277463872685,0.36092277463872685,0.39223150730993345,0.39223150730993345,0.39223150730993345,0.5028979495386321,0.5028979495386321,0.5028979495386321
2019-02-10,1.3048861409783317,1.3048861409783317,1.3048861409783317,1.2328389631140542,1.2328389631140542,1.2328389631140542,1.336808240264663,1.336808240264663,1.336808240264663,1.270795914000254,1.270795914000254,1.270795914000254
2019-02-17,1.7851288508361047,1.7851288508361047,1.7851288508361047,1.774969078207679,1.774969078207679,1.774969078207679,1.7500515696084447,1.7500515696084447,1.7500515696084447,1.6694160392624773,1.6694160392624773,1.6694160392624773
2019-02-24,1.3999137198261913,1.3999137198261913,1.3999137198261913,1.4938004378150547,1.4938004378150547,1.4938004378150547,1.3911397315112155,1.3911397315112155,1.3911397315112155,1.3532065475936512,1.3532065475936512,1.3532065475936512
2019-03-03,0.6058991571405543,0.6058991571405543,0.6058991571405543,0.7783663621024794,0.7783663621024794,0.7783663621024794,0.6736093464774687,0.6736093464774687,0.6736093464774687,0.8246777648880295,0.8246777648880295,0.8246777648880295
2019-03-10,1.0025688032615003,1.0025688032615003,1.0025688032615003,1.0081697019288403,1.0081697019288403,1.0081697019288403,1.0210195606256482,1.0210195606256482,1.0210195606256482,0.9288439758383472,0.9288439758383472,0.9288439758383472
2019-03-17,0.8767325550816246,0.8767325550816246,0.8767325550816246,0.7914547747393671,0.7914547747393671,0.7914547747393671,0.4227585997003419,0.4227585997003419,0.4227585997003419,0.3143676903452473,0.3143676903452473,0.3143676903452473
2019-03-24,0.7846676204562345,0.7846676204562345,0.7846676204562345,0.8395072980857359,0.8395072980857359,0.8395072980857359,0.9122407386439323,0.9122407386439323,0.9122407386439323,0.9601703994470939,0.9601703994470939,0.9601703994470939
2019-03-31,1.7825428128777319,1.7825428128777319,1.7825428128777319,1.7666415310172094,1.7666415310172094,1.7666415310172094,1.9282864666988755,1.9282864666988755,1.9282864666988755,1.9360418361782354,1.9360418361782354,1.9360418361782354
2019-04-07,1.5030159400146748,1.5030159400146748,1.5030159400146748,1.6251832973045937,1.6251832973045937,1.6251832973045937,1.5759422616953926,1.5759422616953926,1.5759422616953926,1.7301549927986135,1.7301549927986135,1.7301549927986135
2019-04-14,1.1804229954203689,1.1804229954203689,1.1804229954203689,1.1668039558746122,1.1668039558746122,1.1668039558746122,1.1475347866395882,1.1475347866395882,1.1475347866395882,1.2335399206228228,1.2335399206228228,1.2335399206228228
2019-04-21,0.5739170341224581,0.5739170341224581,0.5739170341224581,0.7579564619667915,0.7579564619667915,0.7579564619667915,0.6848677543493964,0.6848677543493964,0.6848677543493964,0.749076426691381,0.749076426691381,0.749076426691381
2019-04-28,0.4012628589531999,0.4012628589531999,0.4012628589531999,0.5511130962586518,0.5511130962586518,0.5511130962586518,0.46876390176196975,0.46876390176196975,0.46876390176196975,0.6619544080588267,0.6619544080588267,0.6619544080588267
2019-05-05,-1.304461622978209,-1.304461622978209,-1.304461622978209,-0.9104035222795059,-0.9104035222795059,-0.9104035222795059,-1.1985411113841384,-1.1985411113841384,-1.1985411113841384,-0.7690276560116261,-0.7690276560116261,-0.7690276560116261
2019-05-12,-1.4925913045713077,-1.4925913045713077,-1.4925913045713077,-1.7034179005008212,-1.7034179005008212,-1.7034179005008212,-1.3034553896229504,-1.3034553896229504,-1.3034553896229504,-1.5117625351309947,-1.5117625351309947,-1.5117625351309947
2019-05-19,-1.9838740021963233,-1.9838740021963233,-1.9838740021963233,-2.1546683907986024,-2.1546683907986024,-2.1546683907986024,-1.8627140811291838,-1.8627140811291838,-1.8627140811291838,-1.9084194229245999,-1.9084194229245999,-1.9084194229245999
2019-05-26,-1.9701465659870074,-1.9701465659870074,-1.9701465659870074,-2.0009987835884893,-2.0009987835884893,-2.0009987835884893,-1.9309470141529903,-1.9309470141529903,-1.9309470141529903,-1.9252815795582534,-1.9252815795582534,-1.9252815795582534
2019-06-02,0.488802260781125,0.488802260781125,0.488802260781125,0.4554391476140501,0.4554391476140501,0.4554391476140501,0.5488649237658986,0.5488649237658986,0.5488649237658986,0.44855478922982195,0.44855478922982195,0.44855478922982195
2019-06-09,0.6814961167121877,0.6814961167121877,0.6814961167121877,0.5609457346191806,0.5609457346191806,0.5609457346191806,0.556399859223333,0.556399859223333,0.556399859223333,0.511502506394416,0.511502506394416,0.511502506394416
2019-06-16,0.7920673533257386,0.7920673533257386,0.7920673533257386,0.6830073678763057,0.6830073678763057,0.6830073678763057,0.7114087640747961,0.7114087640747961,0.7114087640747961,0.6603397360217904,0.6603397360217904,0.6603397360217904
2019-06-23,0.8412206854171911,0.8412206854171911,0.8412206854171911,0.9039426110712417,0.9039426110712417,0.9039426110712417,0.8972943385150146,0.8972943385150146,0.8972943385150146,0.9330861870831244,0.9330861870831244,0.9330861870831244
2019-06-30,1.138148335709146,1.138148335709146,1.138148335709146,1.0872446877237056,1.0872446877237056,1.0872446877237056,1.0882727302569857,1.0882727302569857,1.0882727302569857,1.0979630746668676,1.0979630746668676,1.0979630746668676
2019-07-07,0.6490385887054191,0.6490385887054191,0.6490385887054191,0.6953437102676809,0.6953437102676809,0.6953437102676809,0.7210984370871603,0.7210984370871603,0.7210984370871603,0.7441388609956957,0.7441388609956957,0.7441388609956957
2019-07-14,0.7651865690157095,0.7651865690157095,0.7651865690157095,0.8994185223180108,0.8994185223180108,0.8994185223180108,0.8226704084382325,0.8226704084382325,0.8226704084382325,0.8954549152878525,0.8954549152878525,0.8954549152878525
2019-07-21,1.145507521566447,1.145507521566447,1.145507521566447,1.060476746649617,1.060476746649617,1.060476746649617,1.011521014431258,1.011521014431258,1.011521014431258,1.0849641622204091,1.0849641622204091,1.0849641622204091
2019-07-28,0.5263305297814909,0.5263305297814909,0.5263305297814909,0.5654084648288644,0.5654084648288644,0.5654084648288644,0.4438116612099012,0.4438116612099012,0.4438116612099012,0.49041185056993625,0.49041185056993625,0.49041185056993625
2019-08-04,0.405902641864787,0.405902641864787,0.405902641864787,0.32769231585939573,0.32769231585939573,0.32769231585939573,0.38654958309973486,0.38654958309973486,0.38654958309973486,0.3578326502733459,0.3578326502733459,0.3578326502733459
2019-08-11,-0.7386808835876117,-0.7386808835876117,-0.7386808835876117,-0.48714609075343346,-0.48714609075343346,-0.48714609075343346,-0.6654767898152454,-0.6654767898152454,-0.6654767898152454,-0.4616390777123074,-0.4616390777123074,-0.4616390777123074
2019-08-18,-0.9220742501736038,-0.9220742501736038,-0.9220742501736038,-0.9770323939562564,-0.9770323939562564,-0.9770323939562564,-1.4842564005534722,-1.4842564005534722,-1.4842564005534722,-1.6024562207344983,-1.6024562207344983,-1.6024562207344983
2019-08-25,-1.116116951948917,-1.116116951948917,-1.116116951948917,-1.2598417287149384,-1.2598417287149384,-1.2598417287149384,-1.012514364115908,-1.012514364115908,-1.012514364115908,-1.026238534824297,-1.026238534824297,-1.026238534824297
2019-09-01,-0.5538826545222593,-0.5538826545222593,-0.5538826545222593,-0.7716390723622649,-0.7716390723622649,-0.7716390723622649,-0.30736494879471066,-0.30736494879471066,-0.30736494879471066,-0.48927947742273736,-0.48927947742273736,-0.48927947742273736
2019-09-08,1.287206244221399,1.287206244221399,1.287206244221399,1.6682161318935775,1.6682161318935775,1.6682161318935775,1.2941490704308134,1.2941490704308134,1.2941490704308134,1.3452128767286053,1.3452128767286053,1.3452128767286053
2019-09-15,0.9430672561487787,0.9430672561487787,0.9430672561487787,0.7771661866956759,0.7771661866956759,0.7771661866956759,0.7608979863005768,0.7608979863005768,0.7608979863005768,0.5346931380740718,0.5346931380740718,0.5346931380740718
2019-09-22,0.22082825866653003,0.22082825866653003,0.22082825866653003,0.07627174022238488,0.07627174022238488,0.07627174022238488,0.15035112011338778,0.15035112011338778,0.15035112011338778,0.028436436038178275,0.028436436038178275,0.028436436038178275
2019-09-29,-1.1390888264887928,-1.1390888264887928,-1.1390888264887928,-1.1594835493926268,-1.1594835493926268,-1.1594835493926268,-0.8463773199573206,-0.8463773199573206,-0.8463773199573206,-0.839775812933379,-0.839775812933379,-0.839775812933379
2019-10-06,-0.0607046029859524,-0.0607046029859524,-0.0607046029859524,0.2008401983313577,0.2008401983313577,0.2008401983313577,0.14276387180018407,0.14276387180018407,0.14276387180018407,0.109132401041181,0.109132401041181,0.109132401041181
2019-10-13,-0.06678319071473768,-0.06678319071473768,-0.06678319071473768,-0.010107650609339594,-0.010107650609339594,-0.010107650609339594,0.14057219186530007,0.14057219186530007,0.14057219186530007,0.14142974987370327,0.14142974987370327,0.14142974987370327
2019-10-20,0.456728424508534,0.456728424508534,0.456728424508534,0.8095547474051685,0.8095547474051685,0.8095547474051685,0.5837545929422584,0.5837545929422584,0.5837545929422584,0.824436502659135,0.824436502659135,0.824436502659135
2019-10-27,1.0097999865556777,1.0097999865556777,1.0097999865556777,1.1656151715205538,1.1656151715205538,1.1656151715205538,1.0318239491844081,1.0318239491844081,1.0318239491844081,1.2068539376279426,1.2068539376279426,1.2068539376279426
2019-11-03,1.8019755491872056,1.8019755491872056,1.8019755491872056,1.6895280090971116,1.6895280090971116,1.6895280090971116,1.7021582947541325,1.7021582947541325,1.7021582947541325,1.66077044165561,1.66077044165561,1.66077044165561
2019-11-10,1.6686357976290793,1.6686357976290793,1.6686357976290793,1.39313524644449,1.39313524644449,1.39313524644449,1.3840809298746652,1.3840809298746652,1.3840809298746652,1.2126919351860688,1.2126919351860688,1.2126919351860688
2019-11-17,0.6984095953912806,0.6984095953912806,0.6984095953912806,0.6093049575272316,0.6093049575272316,0.6093049575272316,0.7972093388435926,0.7972093388435926,0.7972093388435926,0.6758339910979432,0.6758339910979432,0.6758339910979432
2019-11-24,1.2726198542424192,1.2726198542424192,1.2726198542424192,1.04715960871866,1.04715960871866,1.04715960871866,1.3353739776397224,1.3353739776397224,1.3353739776397224,1.1560851830354317,1.1560851830354317,1.1560851830354317
2019-12-01,1.1250048630122245,1.1250048630122245,1.1250048630122245,1.0786120857503685,1.0786120857503685,1.0786120857503685,1.2221585134957282,1.2221585134957282,1.2221585134957282,1.1465732221949465,1.1465732221949465,1.1465732221949465
2019-12-08,1.5051878202115998,1.5051878202115998,1.5051878202115998,1.5239681137030023,1.5239681137030023,1.5239681137030023,1.3119511483317199,1.3119511483317199,1.3119511483317199,1.2364509340166987,1.2364509340166987,1.2364509340166987
2019-12-15,1.5207850563497132,1.5207850563497132,1.5207850563497132,1.4745526229263617,1.4745526229263617,1.4745526229263617,1.4995746099571514,1.4995746099571514,1.4995746099571514,1.538205073582174,1.538205073582174,1.538205073582174
2019-12-22,1.3823336428520563,1.3823336428520563,1.3823336428520563,1.3771822132393576,1.3771822132393576,1.3771822132393576,1.3909748018463801,1.3909748018463801,1.3909748018463801,1.3188838650668195,1.3188838650668195,1.3188838650668195
2019-12-29,0.6717929561215925,0.6717929561215925,0.6717929561215925,0.6714075052261596,0.6714075052261596,0.6714075052261596,0.5646915037024403,0.5646915037024403,0.5646915037024403,0.44831309637323724,0.44831309637323724,0.44831309637323724
