Date,PowerShares Russell 1000 Equal Weight Portfolio_Open_average,PowerShares Russell 1000 Equal Weight Portfolio_Open_max,PowerShares Russell 1000 Equal Weight Portfolio_High_average,PowerShares Russell 1000 Equal Weight Portfolio_High_max,PowerShares Russell 1000 Equal Weight Portfolio_Low_average,PowerShares Russell 1000 Equal Weight Portfolio_Low_max,PowerShares Russell 1000 Equal Weight Portfolio_Close_average,PowerShares Russell 1000 Equal Weight Portfolio_Close_max
2016-03-27,1.4658932189079095,1.4658932189079095,1.395524895827978,1.395524895827978,1.364299398556135,1.364299398556135,1.3370046399543212,1.3370046399543212
2016-04-03,1.2294067569259233,1.2294067569259233,1.1824689320433275,1.1824689320433275,1.1337192827473668,1.1337192827473668,1.1072405011760875,1.1072405011760875
2016-04-10,1.2455402235410165,1.2455402235410165,1.348611868236944,1.348611868236944,1.1942788968515847,1.1942788968515847,1.3654741144591884,1.3654741144591884
2016-04-17,1.374216300446404,1.374216300446404,1.3095081038050456,1.3095081038050456,1.263541263111334,1.263541263111334,1.215071338670381,1.215071338670381
2016-04-24,1.1563080035329345,1.1563080035329345,1.1127684551841015,1.1127684551841015,1.0508922312146385,1.0508922312146385,1.13879861662217,1.13879861662217
2016-05-01,0.6226141745787004,0.6226141745787004,0.6050112964405304,0.6050112964405304,0.7019924254439212,0.7019924254439212,0.6354424968179021,0.6354424968179021
2016-05-08,0.7189135422202853,0.7189135422202853,0.7000391972971305,0.7000391972971305,0.8226356022915872,0.8226356022915872,0.7585430151753426,0.7585430151753426
2016-05-15,0.4611776226181148,0.4611776226181148,0.4543716199322964,0.4543716199322964,0.5237691263567047,0.5237691263567047,0.40831207457107194,0.40831207457107194
2016-05-22,1.3352441452631731,1.3352441452631731,1.3350501726133077,1.3350501726133077,1.5426605719208493,1.5426605719208493,1.4296716452297038,1.4296716452297038
2016-05-29,1.7944120514305275,1.7944120514305275,1.896531243962289,1.896531243962289,1.986397688592453,1.986397688592453,1.9251215834777646,1.9251215834777646
2016-06-05,1.2848105585270713,1.2848105585270713,1.175891556788597,1.175891556788597,0.9837347514411879,0.9837347514411879,0.7960015585420673,0.7960015585420673
2016-06-12,1.42466012780207,1.42466012780207,1.3167301872977963,1.3167301872977963,1.2059743658421138,1.2059743658421138,1.0320559278530905,1.0320559278530905
2016-06-19,-0.9338656822122531,-0.9338656822122531,-1.0302801350212851,-1.0302801350212851,-1.7722593765475014,-1.7722593765475014,-1.7176486738581922,-1.7176486738581922
2016-06-26,0.9880323901255708,0.9880323901255708,0.9347832101428041,0.9347832101428041,1.0418010954495167,1.0418010954495167,1.0498546836438432,1.0498546836438432
2016-07-03,1.5203009373437228,1.5203009373437228,1.5531007478521992,1.5531007478521992,1.5692862647369907,1.5692862647369907,1.4701328129396711,1.4701328129396711
2016-07-10,1.6448583764017315,1.6448583764017315,1.7775705519361193,1.7775705519361193,1.666570324768458,1.666570324768458,1.7477485264403116,1.7477485264403116
2016-07-17,1.568419341413305,1.568419341413305,1.46404979963047,1.46404979963047,1.4604682601353876,1.4604682601353876,1.416018896893298,1.416018896893298
2016-07-24,1.526290399765739,1.526290399765739,1.452507236728325,1.452507236728325,1.147255054718834,1.147255054718834,1.210099129217931,1.210099129217931
2016-07-31,1.3700742012599427,1.3700742012599427,1.3110960275040353,1.3110960275040353,1.3255337758172794,1.3255337758172794,1.2554859748774523,1.2554859748774523
2016-08-07,1.1773982403244148,1.1773982403244148,1.2819582106526952,1.2819582106526952,1.221263537859606,1.221263537859606,1.2346377453097757,1.2346377453097757
2016-08-14,1.0790691104118488,1.0790691104118488,0.9949834953196411,0.9949834953196411,0.96064951794108,0.96064951794108,1.0253475032812145,1.0253475032812145
2016-08-21,0.6765462639271587,0.6765462639271587,0.8683118202914272,0.8683118202914272,0.7608255849589333,0.7608255849589333,0.8423060043549105,0.8423060043549105
2016-08-28,0.7278022268428797,0.7278022268428797,0.713429976075863,0.713429976075863,0.713100806853295,0.713100806853295,0.7477303982272614,0.7477303982272614
2016-09-04,-0.5518862276822384,-0.5518862276822384,0.1298609305457506,0.1298609305457506,-0.3473586308418787,-0.3473586308418787,0.21397953447987372,0.21397953447987372
2016-09-11,-0.3906209273389813,-0.3906209273389813,-0.30741080638122736,-0.30741080638122736,-0.2681269827968029,-0.2681269827968029,-0.33105670123365316,-0.33105670123365316
2016-09-18,0.026270034724829264,0.026270034724829264,-0.2653534080003527,-0.2653534080003527,-0.1869079777850612,-0.1869079777850612,-0.508218931214026,-0.508218931214026
2016-09-25,0.4077201922702892,0.4077201922702892,0.10335129393894908,0.10335129393894908,-0.114866810537609,-0.114866810537609,-0.06656934930801083,-0.06656934930801083
2016-10-02,-0.3865475373348706,-0.3865475373348706,-0.4709113305847013,-0.4709113305847013,-0.009605448218474116,-0.009605448218474116,-0.39381322094198223,-0.39381322094198223
2016-10-09,-1.7532314873692978,-1.7532314873692978,-2.3350895913492606,-2.3350895913492606,-1.8879657751834242,-1.8879657751834242,-2.215086730182954,-2.215086730182954
2016-10-16,-0.7985789398830565,-0.7985789398830565,-1.0898159359664732,-1.0898159359664732,-0.9297349075967785,-0.9297349075967785,-1.0689594407845426,-1.0689594407845426
2016-10-23,-1.7187383748446527,-1.7187383748446527,-2.015047188549292,-2.015047188549292,-1.6832852284863393,-1.6832852284863393,-1.7991455858426297,-1.7991455858426297
2016-10-30,-1.6577589157129322,-1.6577589157129322,-1.8242694203301446,-1.8242694203301446,-1.7073817458516414,-1.7073817458516414,-1.5914480742244022,-1.5914480742244022
2016-11-06,-0.004566606792081948,-0.004566606792081948,0.3222110842537917,0.3222110842537917,0.2227672017075938,0.2227672017075938,0.4340577330983901,0.4340577330983901
2016-11-13,1.571290985118421,1.571290985118421,1.6011715271085039,1.6011715271085039,1.6674110062068674,1.6674110062068674,1.6652707040873072,1.6652707040873072
2016-11-20,2.1430400603017126,2.1430400603017126,1.9453493112941802,1.9453493112941802,1.8624058628423643,1.8624058628423643,1.6966279741024248,1.6966279741024248
2016-11-27,1.6966141759144977,1.6966141759144977,1.731759361359612,1.731759361359612,1.8568981332450216,1.8568981332450216,1.9084522115615976,1.9084522115615976
2016-12-04,2.3047671460522055,2.3047671460522055,2.2082356854497434,2.2082356854497434,2.132929807068893,2.132929807068893,2.1297540786550178,2.1297540786550178
2016-12-11,1.3612631038329817,1.3612631038329817,1.293595257869431,1.293595257869431,1.3812913533846132,1.3812913533846132,1.3846432640447388,1.3846432640447388
2016-12-18,0.9376843430577585,0.9376843430577585,1.0286934177572236,1.0286934177572236,1.0971989980662278,1.0971989980662278,1.162933801569819,1.162933801569819
2016-12-25,0.8379069769545295,0.8379069769545295,0.7627028532206431,0.7627028532206431,0.6982054140720507,0.6982054140720507,0.7044738556038723,0.7044738556038723
2017-01-01,1.127291270868537,1.127291270868537,1.0690496948596366,1.0690496948596366,1.0916001678997955,1.0916001678997955,1.046860524074618,1.046860524074618
2017-01-08,0.980864562280129,0.980864562280129,0.9870495855976213,0.9870495855976213,1.0825125777359803,1.0825125777359803,1.0966509034957217,1.0966509034957217
2017-01-15,0.8629806155355082,0.8629806155355082,0.812364552897814,0.812364552897814,0.7594248815924407,0.7594248815924407,0.8029480811218286,0.8029480811218286
2017-01-22,0.8324148216584677,0.8324148216584677,0.9353761663523988,0.9353761663523988,0.6673553932720664,0.6673553932720664,0.8452637399960701,0.8452637399960701
2017-01-29,1.288371245253556,1.288371245253556,1.3038061303613098,1.3038061303613098,1.3074874572329216,1.3074874572329216,1.3513230711270616,1.3513230711270616
2017-02-05,1.7335655981693106,1.7335655981693106,1.9191505805439673,1.9191505805439673,2.1365079225520387,2.1365079225520387,2.06828218803663,2.06828218803663
2017-02-12,1.7212319549314914,1.7212319549314914,1.8427900569614917,1.8427900569614917,1.8718522508059825,1.8718522508059825,1.9705201947245061,1.9705201947245061
2017-02-19,1.8135753077073962,1.8135753077073962,1.846169086081031,1.846169086081031,1.8140439097019496,1.8140439097019496,1.925316943645109,1.925316943645109
2017-02-26,1.372953922734731,1.372953922734731,1.2486841277860963,1.2486841277860963,1.3440874581360078,1.3440874581360078,1.3084084067236759,1.3084084067236759
2017-03-05,0.7204564715849074,0.7204564715849074,0.8066332824573708,0.8066332824573708,0.902863609346125,0.902863609346125,0.8294637288470167,0.8294637288470167
2017-03-12,1.0793147105437875,1.0793147105437875,0.9432889796845769,0.9432889796845769,0.9455116012672317,0.9455116012672317,0.8772972755393125,0.8772972755393125
2017-03-19,-0.19321567308348397,-0.19321567308348397,0.008870280671775537,0.008870280671775537,-0.30827882118007144,-0.30827882118007144,0.059111616182305524,0.059111616182305524
2017-03-26,0.9635745348367865,0.9635745348367865,0.838910908420303,0.838910908420303,0.47513377017461395,0.47513377017461395,0.4439692875370223,0.4439692875370223
2017-04-02,0.6242061664560785,0.6242061664560785,0.7451820913513009,0.7451820913513009,0.7985120034315519,0.7985120034315519,0.6977771151032567,0.6977771151032567
2017-04-09,-0.35359401507490684,-0.35359401507490684,-0.09787677819735688,-0.09787677819735688,-0.12241760505492211,-0.12241760505492211,0.12543158965907023,0.12543158965907023
2017-04-16,0.8902299496736109,0.8902299496736109,0.8737521986042941,0.8737521986042941,0.9671526266766233,0.9671526266766233,0.8758187231214506,0.8758187231214506
2017-04-23,1.1519494141513011,1.1519494141513011,1.0761702323571993,1.0761702323571993,1.0814649756158288,1.0814649756158288,0.9641628353173389,0.9641628353173389
2017-04-30,1.0944538519566438,1.0944538519566438,0.8959755967037275,0.8959755967037275,0.6838668773336498,0.6838668773336498,0.7037328389426315,0.7037328389426315
2017-05-07,0.6859287562305438,0.6859287562305438,1.2667327059030784,1.2667327059030784,1.0960455722062137,1.0960455722062137,1.2013839803264128,1.2013839803264128
2017-05-14,0.43157932790328046,0.43157932790328046,0.6284736149896221,0.6284736149896221,0.8254493562346796,0.8254493562346796,0.8465215434448367,0.8465215434448367
2017-05-21,0.9165787828036543,0.9165787828036543,0.9365087994105282,0.9365087994105282,1.140688617625396,1.140688617625396,1.1970006823054273,1.1970006823054273
2017-05-28,1.9340969292626968,1.9340969292626968,1.9161528621288992,1.9161528621288992,1.6461227272554242,1.6461227272554242,1.8079018574462902,1.8079018574462902
2017-06-04,1.1339532903976501,1.1339532903976501,1.1142509881186953,1.1142509881186953,1.1476033806981423,1.1476033806981423,1.1018585485332695,1.1018585485332695
2017-06-11,1.0864162539559428,1.0864162539559428,1.2807585446398653,1.2807585446398653,0.9951594054329208,0.9951594054329208,1.4589571505270895,1.4589571505270895
2017-06-18,1.1887870300769843,1.1887870300769843,1.1978733415914566,1.1978733415914566,1.0514590904119685,1.0514590904119685,1.1496943772286619,1.1496943772286619
2017-06-25,0.9440881084255671,0.9440881084255671,1.0668505897178082,1.0668505897178082,1.1896271853800957,1.1896271853800957,1.0622211212050832,1.0622211212050832
2017-07-02,-0.4860842680366728,-0.4860842680366728,-0.42893423778003037,-0.42893423778003037,-0.34009131538072096,-0.34009131538072096,-0.5523540534259863,-0.5523540534259863
2017-07-09,1.7657374797966379,1.7657374797966379,1.9987486980880718,1.9987486980880718,2.076839890086233,2.076839890086233,1.9084639372164756,1.9084639372164756
2017-07-16,2.089072554491831,2.089072554491831,2.0681373318108927,2.0681373318108927,2.1543162032034817,2.1543162032034817,2.139866095836462,2.139866095836462
2017-07-23,1.8018288443162653,1.8018288443162653,1.7503305626598935,1.7503305626598935,1.4411533842457878,1.4411533842457878,1.4804024374484732,1.4804024374484732
2017-07-30,0.5713096105505429,0.5713096105505429,0.6971620714292129,0.6971620714292129,0.7963293834468387,0.7963293834468387,0.918897178913051,0.918897178913051
2017-08-06,-0.8355076850680514,-0.8355076850680514,-0.4539011970099909,-0.4539011970099909,-0.6819551104254385,-0.6819551104254385,-0.7278126651566117,-0.7278126651566117
2017-08-13,-1.8757607882187368,-1.8757607882187368,-2.137632892296482,-2.137632892296482,-2.0814524677753385,-2.0814524677753385,-2.1965939077051706,-2.1965939077051706
2017-08-20,-0.6320114959684365,-0.6320114959684365,-0.8328647063810707,-0.8328647063810707,-1.015692615866126,-1.015692615866126,-1.0082348059905055,-1.0082348059905055
2017-08-27,0.60194481267861,0.60194481267861,0.9806040291913177,0.9806040291913177,0.8318451860554293,0.8318451860554293,1.1242744691079531,1.1242744691079531
2017-09-03,0.737466571892286,0.737466571892286,1.2192792332608382,1.2192792332608382,0.927589915280775,0.927589915280775,1.2324213593758742,1.2324213593758742
2017-09-10,1.6722746323426292,1.6722746323426292,1.591904031520261,1.591904031520261,1.7114233610136707,1.7114233610136707,1.6366342950422283,1.6366342950422283
2017-09-17,1.58766357758303,1.58766357758303,1.419417402422173,1.419417402422173,1.5199266299326095,1.5199266299326095,1.4876798251286971,1.4876798251286971
2017-09-24,1.704636537485321,1.704636537485321,1.8483914698745127,1.8483914698745127,1.7569155005860968,1.7569155005860968,1.8416626765557222,1.8416626765557222
2017-10-01,2.007463903532227,2.007463903532227,1.83642410604612,1.83642410604612,1.782257781517464,1.782257781517464,1.6320039603053327,1.6320039603053327
2017-10-08,1.6356084722246065,1.6356084722246065,1.5691893294930557,1.5691893294930557,1.6469004611058708,1.6469004611058708,1.5174844146575952,1.5174844146575952
2017-10-15,1.6083614816319827,1.6083614816319827,1.5275918633616279,1.5275918633616279,1.4348049913254262,1.4348049913254262,1.340305005795358,1.340305005795358
2017-10-22,1.0161781133630365,1.0161781133630365,1.0448863449784853,1.0448863449784853,1.0329625327865448,1.0329625327865448,0.9666238551685595,0.9666238551685595
2017-10-29,1.0301195835069221,1.0301195835069221,1.1944037037939343,1.1944037037939343,1.1398038618832287,1.1398038618832287,1.3189882717938939,1.3189882717938939
2017-11-05,0.7646712396375802,0.7646712396375802,0.8822184418655309,0.8822184418655309,0.8732738394585771,0.8732738394585771,0.923302034456234,0.923302034456234
2017-11-12,1.1824781524736758,1.1824781524736758,1.049394419726757,1.049394419726757,1.113204841880955,1.113204841880955,1.1152946414050366,1.1152946414050366
2017-11-19,1.4798973987331392,1.4798973987331392,1.4310709541548619,1.4310709541548619,1.445601576139103,1.445601576139103,1.4357184521766366,1.4357184521766366
2017-11-26,2.1344998194748412,2.1344998194748412,2.2752220746551557,2.2752220746551557,2.1724803971811557,2.1724803971811557,2.1492100396354425,2.1492100396354425
2017-12-03,1.7354748217338896,1.7354748217338896,1.6477166624867234,1.6477166624867234,1.781081829634344,1.781081829634344,1.9075148450593702,1.9075148450593702
2017-12-10,1.3847594951075672,1.3847594951075672,1.488196387322438,1.488196387322438,1.6099472902948258,1.6099472902948258,1.6295512115788173,1.6295512115788173
2017-12-17,1.395631552381675,1.395631552381675,1.4765623295218446,1.4765623295218446,1.556329984615654,1.556329984615654,1.6086454151646892,1.6086454151646892
2017-12-24,1.7026535304765011,1.7026535304765011,1.6640139273413226,1.6640139273413226,1.5924768559111593,1.5924768559111593,1.4788436760006138,1.4788436760006138
2017-12-31,1.9256025555797043,1.9256025555797043,1.921655005459072,1.921655005459072,1.903783531745423,1.903783531745423,2.0191983945941177,2.0191983945941177
2018-01-07,1.7815625022734836,1.7815625022734836,1.890729352546092,1.890729352546092,1.9056284364974057,1.9056284364974057,1.9119963748865592,1.9119963748865592
2018-01-14,1.6953736702504816,1.6953736702504816,1.7798144284728359,1.7798144284728359,1.7637328594341644,1.7637328594341644,1.8203518726207928,1.8203518726207928
2018-01-21,1.8318765131297277,1.8318765131297277,1.731685574999595,1.731685574999595,1.6891895613306291,1.6891895613306291,1.5708537417976878,1.5708537417976878
2018-01-28,-0.0027350968391428453,-0.0027350968391428453,0.10155001096482341,0.10155001096482341,-0.909183139429032,-0.909183139429032,-0.9782852283021163,-0.9782852283021163
2018-02-04,-1.4665932116522382,-1.4665932116522382,-1.2242504199085575,-1.2242504199085575,-1.4261694902947217,-1.4261694902947217,-1.1471130286060076,-1.1471130286060076
2018-02-11,-0.3908904417269936,-0.3908904417269936,-0.26253393884998183,-0.26253393884998183,-0.20481004000373212,-0.20481004000373212,-0.17748013499107604,-0.17748013499107604
2018-02-18,-0.130882579698141,-0.130882579698141,-0.21417121264689076,-0.21417121264689076,-0.11649239585970773,-0.11649239585970773,-0.012194676954519042,-0.012194676954519042
2018-02-25,-0.9030773373066173,-0.9030773373066173,-0.49255604615816406,-0.49255604615816406,-0.7298187324950371,-0.7298187324950371,-0.37632578021796603,-0.37632578021796603
2018-03-04,0.4424196490298857,0.4424196490298857,0.3418534340236111,0.3418534340236111,0.4995622673706755,0.4995622673706755,0.43994355303663996,0.43994355303663996
2018-03-11,-0.30230390664189155,-0.30230390664189155,-0.49917200271376955,-0.49917200271376955,-0.527935295459603,-0.527935295459603,-0.5967184256964033,-0.5967184256964033
2018-03-18,-1.362850322595236,-1.362850322595236,-1.333852650581215,-1.333852650581215,-1.297848009719189,-1.297848009719189,-0.9706218257501544,-0.9706218257501544
2018-03-25,-0.935315510874323,-0.935315510874323,-1.220133512672394,-1.220133512672394,-1.4873450821332441,-1.4873450821332441,-1.5423088005855288,-1.5423088005855288
2018-04-01,-1.0208048258752598,-1.0208048258752598,-1.0541483842116885,-1.0541483842116885,-0.74311525880963,-0.74311525880963,-1.0075743017847891,-1.0075743017847891
2018-04-08,-0.22490630855308913,-0.22490630855308913,-0.1805231482321898,-0.1805231482321898,0.09928032067193161,0.09928032067193161,0.05765769421591013,0.05765769421591013
2018-04-15,-0.025837039616144742,-0.025837039616144742,-0.04542564213663172,-0.04542564213663172,0.200473286906807,0.200473286906807,0.15574330479371304,0.15574330479371304
2018-04-22,0.39625833985407466,0.39625833985407466,0.14738714673808234,0.14738714673808234,0.3721021919748844,0.3721021919748844,0.06628750867405975,0.06628750867405975
2018-04-29,0.21313005271141472,0.21313005271141472,0.16389299050426645,0.16389299050426645,0.4831512084707288,0.4831512084707288,0.28175719987352826,0.28175719987352826
2018-05-06,1.3485580173377076,1.3485580173377076,1.253221940778044,1.253221940778044,1.1993876795193927,1.1993876795193927,1.072414033274782,1.072414033274782
2018-05-13,1.521007970305739,1.521007970305739,1.5159747395697554,1.5159747395697554,1.4209778703929112,1.4209778703929112,1.4357429515515152,1.4357429515515152
2018-05-20,0.8999604881393163,0.8999604881393163,0.8611500969339534,0.8611500969339534,0.9733523755196691,0.9733523755196691,0.9668054706411571,0.9668054706411571
2018-05-27,1.1452043769957319,1.1452043769957319,1.0920436537972678,1.0920436537972678,1.0709660055243189,1.0709660055243189,1.1144869649971583,1.1144869649971583
2018-06-03,1.794216443934331,1.794216443934331,1.9538461242133978,1.9538461242133978,1.6831196681750904,1.6831196681750904,1.7287046515893199,1.7287046515893199
2018-06-10,1.2792400110269655,1.2792400110269655,1.4475786602921663,1.4475786602921663,1.2256257323379338,1.2256257323379338,1.3749326271459654,1.3749326271459654
2018-06-17,1.3258623359681032,1.3258623359681032,1.2007035910205097,1.2007035910205097,0.6707561499022351,0.6707561499022351,0.7150385919934686,0.7150385919934686
2018-06-24,0.42295455445836716,0.42295455445836716,0.5307656047647781,0.5307656047647781,0.40572961235034455,0.40572961235034455,0.6673674801246487,0.6673674801246487
2018-07-01,1.7455286618025645,1.7455286618025645,1.8189108742238265,1.8189108742238265,1.9067599327141442,1.9067599327141442,1.8317236613752517,1.8317236613752517
2018-07-08,1.5295789057740485,1.5295789057740485,1.4075755979055806,1.4075755979055806,1.2908413954271774,1.2908413954271774,1.1280156365925929,1.1280156365925929
2018-07-15,1.2436181422155899,1.2436181422155899,1.1325222808447026,1.1325222808447026,1.0727605960956037,1.0727605960956037,1.0234655947131328,1.0234655947131328
2018-07-22,1.1101585263933638,1.1101585263933638,1.0200392677565373,1.0200392677565373,0.9453835888983264,0.9453835888983264,0.7963659834253192,0.7963659834253192
2018-07-29,1.3708150718739653,1.3708150718739653,1.7118791914892182,1.7118791914892182,1.6710071446184074,1.6710071446184074,1.9199402996338577,1.9199402996338577
2018-08-05,1.1628958368343774,1.1628958368343774,0.9876174343264515,0.9876174343264515,0.785212272918898,0.785212272918898,0.7526052669713351,0.7526052669713351
2018-08-12,1.3023836898411518,1.3023836898411518,1.472000449495994,1.472000449495994,1.585665388570031,1.585665388570031,1.622743034834925,1.622743034834925
2018-08-19,1.9186315728066083,1.9186315728066083,2.0123293982361092,2.0123293982361092,2.015670775370808,2.015670775370808,2.049539257807707,2.049539257807707
2018-08-26,1.816777405555447,1.816777405555447,1.6306438202751585,1.6306438202751585,1.632348800438894,1.632348800438894,1.5623246251437108,1.5623246251437108
2018-09-02,1.196014201077971,1.196014201077971,1.09955593825907,1.09955593825907,1.215839480421444,1.215839480421444,1.1051783025474002,1.1051783025474002
2018-09-09,1.605199398968666,1.605199398968666,1.4850168605141032,1.4850168605141032,1.2945027137304133,1.2945027137304133,1.2712120463174839,1.2712120463174839
2018-09-16,1.113452836792582,1.113452836792582,1.06659449340685,1.06659449340685,1.0515770187985716,1.0515770187985716,1.1101494560718252,1.1101494560718252
2018-09-23,1.0607286611203957,1.0607286611203957,0.9287947094654571,0.9287947094654571,0.6129961774003964,0.6129961774003964,0.6333908485957046,0.6333908485957046
2018-09-30,-0.5963104929361156,-0.5963104929361156,-0.6489530557203086,-0.6489530557203086,-0.6655722686470928,-0.6655722686470928,-0.3015904694961289,-0.3015904694961289
2018-10-07,-2.6064488563916757,-2.6064488563916757,-2.511573785912278,-2.511573785912278,-2.5011529785605147,-2.5011529785605147,-2.5244965781055653,-2.5244965781055653
2018-10-14,-1.8909952504853222,-1.8909952504853222,-2.048723104178317,-2.048723104178317,-2.0806272658514837,-2.0806272658514837,-2.13712020870208,-2.13712020870208
2018-10-21,-2.358596822669365,-2.358596822669365,-2.351860754718489,-2.351860754718489,-2.5587059596804047,-2.5587059596804047,-2.5124268771902787,-2.5124268771902787
2018-10-28,-1.369531797921278,-1.369531797921278,-1.30104725553721,-1.30104725553721,-1.0939575025493151,-1.0939575025493151,-1.0932540924319278,-1.0932540924319278
2018-11-04,-0.9038246256111623,-0.9038246256111623,-1.0135589634215008,-1.0135589634215008,-1.0668151048415582,-1.0668151048415582,-1.1579732216524328,-1.1579732216524328
2018-11-11,-1.0842008623708121,-1.0842008623708121,-1.1779451948695456,-1.1779451948695456,-1.1313045826648187,-1.1313045826648187,-1.171589871394567,-1.171589871394567
2018-11-18,-1.251693164223553,-1.251693164223553,-1.2657464275008512,-1.2657464275008512,-1.0431345156302896,-1.0431345156302896,-1.0478981592484509,-1.0478981592484509
2018-11-25,-0.3050305585803331,-0.3050305585803331,-0.3715052388609932,-0.3715052388609932,-0.27308742964002397,-0.27308742964002397,-0.20467639564697573,-0.20467639564697573
2018-12-02,-1.4104506514482573,-1.4104506514482573,-1.484359806843882,-1.484359806843882,-1.476628130251629,-1.476628130251629,-1.3494452433192814,-1.3494452433192814
2018-12-09,-1.6151561601229,-1.6151561601229,-1.6404049742967846,-1.6404049742967846,-1.7265904226375217,-1.7265904226375217,-1.8020055854194283,-1.8020055854194283
2018-12-16,-2.416014697304636,-2.416014697304636,-2.43025380543644,-2.43025380543644,-2.3382655218065596,-2.3382655218065596,-2.409093302778275,-2.409093302778275
2018-12-23,-1.5617569636569824,-1.5617569636569824,-1.5797072109196972,-1.5797072109196972,-1.4005975858216146,-1.4005975858216146,-1.3048665207265813,-1.3048665207265813
2018-12-30,-0.979164062024333,-0.979164062024333,-0.739284124277558,-0.739284124277558,-0.7563558878795317,-0.7563558878795317,-0.6435048526362361,-0.6435048526362361
2019-01-06,-0.28975878725290194,-0.28975878725290194,-0.2978352482325117,-0.2978352482325117,-0.041970945780898924,-0.041970945780898924,-0.13564700660413506,-0.13564700660413506
2019-01-13,0.30710015381868866,0.30710015381868866,0.4457169784247649,0.4457169784247649,0.5144437435594303,0.5144437435594303,0.598206842430028,0.598206842430028
2019-01-20,0.28654232594131135,0.28654232594131135,0.3079167438651232,0.3079167438651232,0.4315843081474472,0.4315843081474472,0.4367226808648235,0.4367226808648235
2019-01-27,0.9068637693247715,0.9068637693247715,1.0005743854298468,1.0005743854298468,1.004581212642278,1.004581212642278,1.0727300408678155,1.0727300408678155
2019-02-03,0.9560610608152941,0.9560610608152941,0.9427458103494673,0.9427458103494673,1.0189160672722994,1.0189160672722994,0.9558949878217946,0.9558949878217946
2019-02-10,1.36221007970188,1.36221007970188,1.361763159317312,1.361763159317312,1.3819277670878574,1.3819277670878574,1.31566968149889,1.31566968149889
2019-02-17,1.4544055889681877,1.4544055889681877,1.4159290188232596,1.4159290188232596,1.395575225576345,1.395575225576345,1.2840838699624033,1.2840838699624033
2019-02-24,1.37510093315044,1.37510093315044,1.3116289629126434,1.3116289629126434,1.1234104241341751,1.1234104241341751,1.1746416525390595,1.1746416525390595
2019-03-03,0.6700706275872312,0.6700706275872312,0.7884658416664274,0.7884658416664274,0.7427109143695336,0.7427109143695336,0.8215622121001741,0.8215622121001741
2019-03-10,0.9265736689191161,0.9265736689191161,0.9244886926019162,0.9244886926019162,0.9527596064206096,0.9527596064206096,0.9240832274145914,0.9240832274145914
2019-03-17,0.6177627266481123,0.6177627266481123,0.5854162852565168,0.5854162852565168,0.5571317660987489,0.5571317660987489,0.5795067854595177,0.5795067854595177
2019-03-24,1.0707061671367237,1.0707061671367237,1.1388450981825329,1.1388450981825329,1.1627673102676914,1.1627673102676914,1.1734495547836181,1.1734495547836181
2019-03-31,1.4349151144201393,1.4349151144201393,1.3773971352619034,1.3773971352619034,1.4921299255048568,1.4921299255048568,1.4525812819275776,1.4525812819275776
2019-04-07,1.537866359349162,1.537866359349162,1.5066876699414264,1.5066876699414264,1.5853407222285383,1.5853407222285383,1.5112424578478216,1.5112424578478216
2019-04-14,1.0925568879699799,1.0925568879699799,1.0864140139741563,1.0864140139741563,1.1866871499356362,1.1866871499356362,1.1653589346617088,1.1653589346617088
2019-04-21,1.2558923885915485,1.2558923885915485,1.3032648804191742,1.3032648804191742,1.3738569578535436,1.3738569578535436,1.3079346978004978,1.3079346978004978
2019-04-28,0.46989868583825284,0.46989868583825284,0.9464571858078169,0.9464571858078169,0.5032235081554649,0.5032235081554649,0.9834805676453643,0.9834805676453643
2019-05-05,-0.6947585720132239,-0.6947585720132239,-0.9581924774100405,-0.9581924774100405,-1.1168548827213445,-1.1168548827213445,-1.254464914781241,-1.254464914781241
2019-05-12,-0.7846273053467727,-0.7846273053467727,-0.8468509428425387,-0.8468509428425387,-0.6561695499393017,-0.6561695499393017,-0.9278040022613558,-0.9278040022613558
2019-05-19,-1.1002034277928325,-1.1002034277928325,-1.3328569470433138,-1.3328569470433138,-1.0762309618443355,-1.0762309618443355,-1.32054427407148,-1.32054427407148
2019-05-26,-1.984180563528314,-1.984180563528314,-1.9756698035750642,-1.9756698035750642,-1.8461991356207674,-1.8461991356207674,-1.8753467857643793,-1.8753467857643793
2019-06-02,-0.20235103243791513,-0.20235103243791513,-0.1338509017178399,-0.1338509017178399,-0.09536100357150842,-0.09536100357150842,-0.28217960890973265,-0.28217960890973265
2019-06-09,-0.351023438196237,-0.351023438196237,-0.37700700407389504,-0.37700700407389504,-0.2385996975928531,-0.2385996975928531,-0.3696662730532461,-0.3696662730532461
2019-06-16,0.3215298261783172,0.3215298261783172,0.23752138704675088,0.23752138704675088,0.1804754780488198,0.1804754780488198,0.0269256204787473,0.0269256204787473
2019-06-23,0.8877824561820887,0.8877824561820887,0.8471983429106096,0.8471983429106096,0.6573325787271642,0.6573325787271642,0.6879949286347754,0.6879949286347754
2019-06-30,0.7801137914777561,0.7801137914777561,0.7461043999930576,0.7461043999930576,0.7266831620204316,0.7266831620204316,0.6749341921607082,0.6749341921607082
2019-07-07,1.066911324028732,1.066911324028732,0.9504198737061683,0.9504198737061683,1.0381195209654581,1.0381195209654581,0.943722244599531,0.943722244599531
2019-07-14,0.5587507427056881,0.5587507427056881,0.46457254942211124,0.46457254942211124,0.6336891343970219,0.6336891343970219,0.5086502190414154,0.5086502190414154
2019-07-21,1.0928809549155738,1.0928809549155738,0.9929153945630409,0.9929153945630409,1.0767055773147765,1.0767055773147765,1.0665871960189655,1.0665871960189655
2019-07-28,-0.9742098483625075,-0.9742098483625075,-1.0959760203034414,-1.0959760203034414,-1.4257459947847808,-1.4257459947847808,-1.387945563235048,-1.387945563235048
2019-08-04,-0.8666900622145253,-0.8666900622145253,-0.9522660478565479,-0.9522660478565479,-1.0594055631258064,-1.0594055631258064,-1.0877514315185224,-1.0877514315185224
2019-08-11,-0.8452953144861539,-0.8452953144861539,-0.783482075567155,-0.783482075567155,-0.6347902162790117,-0.6347902162790117,-0.6272476647994681,-0.6272476647994681
2019-08-18,-1.3360077173288258,-1.3360077173288258,-1.3951574538696738,-1.3951574538696738,-1.3526905286778974,-1.3526905286778974,-1.3482576429814475,-1.3482576429814475
2019-08-25,-0.7938144512568804,-0.7938144512568804,-0.8380256270418911,-0.8380256270418911,-0.8271740012312329,-0.8271740012312329,-0.769013989691819,-0.769013989691819
2019-09-01,-0.0953725733111811,-0.0953725733111811,-0.006615991792435473,-0.006615991792435473,0.1343280589710214,0.1343280589710214,0.19725628341999998,0.19725628341999998
2019-09-08,0.7308434554426093,0.7308434554426093,0.9067993063971548,0.9067993063971548,0.9336577965298484,0.9336577965298484,1.0376523748202455,1.0376523748202455
2019-09-15,0.15362784580676972,0.15362784580676972,0.27497505405482037,0.27497505405482037,0.2543064900051804,0.2543064900051804,0.3625893310293449,0.3625893310293449
2019-09-22,-0.26646451072161836,-0.26646451072161836,-0.1904227690203003,-0.1904227690203003,-0.07663957631768861,-0.07663957631768861,-0.03860287690769163,-0.03860287690769163
2019-09-29,-0.8242435244812917,-0.8242435244812917,-0.7816724904243282,-0.7816724904243282,-0.6984034533577586,-0.6984034533577586,-0.8348423120814539,-0.8348423120814539
2019-10-06,-0.5619980595255414,-0.5619980595255414,-0.662932922036474,-0.662932922036474,-0.5432866360969453,-0.5432866360969453,-0.5173090914611987,-0.5173090914611987
2019-10-13,0.012127911598842411,0.012127911598842411,0.05077215500911106,0.05077215500911106,0.21015441093845688,0.21015441093845688,0.2037499665106987,0.2037499665106987
2019-10-20,1.150133800060711,1.150133800060711,1.1209085652423159,1.1209085652423159,1.1205985837961017,1.1205985837961017,0.940411415065944,0.940411415065944
2019-10-27,1.6368131011158722,1.6368131011158722,1.574844898247872,1.574844898247872,1.6091718076082453,1.6091718076082453,1.5757092645008262,1.5757092645008262
2019-11-03,1.3201845451161343,1.3201845451161343,1.2258171201829946,1.2258171201829946,1.2771924320899393,1.2771924320899393,1.2544612037605805,1.2544612037605805
2019-11-10,1.488553807986518,1.488553807986518,1.306375451840522,1.306375451840522,1.3642532444081572,1.3642532444081572,1.2523631910434703,1.2523631910434703
2019-11-17,1.3361889026305422,1.3361889026305422,1.4858165331014692,1.4858165331014692,1.3334063755545462,1.3334063755545462,1.4697948975428863,1.4697948975428863
2019-11-24,1.4000682829475177,1.4000682829475177,1.2063313373251718,1.2063313373251718,1.0774103975378984,1.0774103975378984,0.9007395350122128,0.9007395350122128
2019-12-01,1.3015676364157192,1.3015676364157192,1.2456957742319759,1.2456957742319759,1.3241542003534665,1.3241542003534665,1.2016597654992762,1.2016597654992762
2019-12-08,1.5955870264060577,1.5955870264060577,1.6998451365579568,1.6998451365579568,1.6374013490204606,1.6374013490204606,1.6313058056094965,1.6313058056094965
2019-12-15,1.788236400766765,1.788236400766765,1.6864632172655698,1.6864632172655698,1.6943101977242419,1.6943101977242419,1.7189990925069514,1.7189990925069514
2019-12-22,1.4482314019952869,1.4482314019952869,1.3653990154165894,1.3653990154165894,1.3449066612022025,1.3449066612022025,1.2907986620199339,1.2907986620199339
2019-12-29,1.050949432958023,1.050949432958023,1.1369702581025438,1.1369702581025438,1.135843159723596,1.135843159723596,1.2276689964406209,1.2276689964406209
